digraph Tree {
node [shape=box, style="filled, rounded", color="black", fontname=helvetica] ;
edge [fontname=helvetica] ;
0 [label="x2 <= 0.295\ngini = 0.5\nsamples = 800\nvalue = [403, 397]\nclass = Green", fillcolor="#fffdfc"] ;
1 [label="x1 <= -0.617\ngini = 0.355\nsamples = 407\nvalue = [94, 313]\nclass = Blue", fillcolor="#74baed"] ;
0 -> 1 [labeldistance=2.5, labelangle=45, headlabel="True"] ;
2 [label="x1 <= -0.758\ngini = 0.049\nsamples = 40\nvalue = [39, 1]\nclass = Green", fillcolor="#e6843e"] ;
1 -> 2 ;
3 [label="gini = 0.0\nsamples = 34\nvalue = [34, 0]\nclass = Green", fillcolor="#e58139"] ;
2 -> 3 ;
4 [label="gini = 0.278\nsamples = 6\nvalue = [5, 1]\nclass = Green", fillcolor="#ea9a61"] ;
2 -> 4 ;
5 [label="x2 <= -0.31\ngini = 0.255\nsamples = 367\nvalue = [55, 312]\nclass = Blue", fillcolor="#5caeea"] ;
1 -> 5 ;
6 [label="x1 <= -0.077\ngini = 0.042\nsamples = 140\nvalue = [3, 137]\nclass = Blue", fillcolor="#3d9fe6"] ;
5 -> 6 ;
7 [label="gini = 0.245\nsamples = 7\nvalue = [1, 6]\nclass = Blue", fillcolor="#5aade9"] ;
6 -> 7 ;
8 [label="x1 <= 0.406\ngini = 0.03\nsamples = 133\nvalue = [2, 131]\nclass = Blue", fillcolor="#3c9ee5"] ;
6 -> 8 ;
9 [label="x1 <= 0.238\ngini = 0.095\nsamples = 20\nvalue = [1, 19]\nclass = Blue", fillcolor="#43a2e6"] ;
8 -> 9 ;
10 [label="gini = 0.0\nsamples = 14\nvalue = [0, 14]\nclass = Blue", fillcolor="#399de5"] ;
9 -> 10 ;
11 [label="gini = 0.278\nsamples = 6\nvalue = [1, 5]\nclass = Blue", fillcolor="#61b1ea"] ;
9 -> 11 ;
12 [label="x1 <= 1.416\ngini = 0.018\nsamples = 113\nvalue = [1, 112]\nclass = Blue", fillcolor="#3b9ee5"] ;
8 -> 12 ;
13 [label="gini = 0.0\nsamples = 72\nvalue = [0, 72]\nclass = Blue", fillcolor="#399de5"] ;
12 -> 13 ;
14 [label="x1 <= 1.53\ngini = 0.048\nsamples = 41\nvalue = [1, 40]\nclass = Blue", fillcolor="#3e9fe6"] ;
12 -> 14 ;
15 [label="gini = 0.278\nsamples = 6\nvalue = [1, 5]\nclass = Blue", fillcolor="#61b1ea"] ;
14 -> 15 ;
16 [label="gini = 0.0\nsamples = 35\nvalue = [0, 35]\nclass = Blue", fillcolor="#399de5"] ;
14 -> 16 ;
17 [label="x1 <= 1.508\ngini = 0.353\nsamples = 227\nvalue = [52, 175]\nclass = Blue", fillcolor="#74baed"] ;
5 -> 17 ;
18 [label="x1 <= 0.456\ngini = 0.421\nsamples = 169\nvalue = [51, 118]\nclass = Blue", fillcolor="#8fc7f0"] ;
17 -> 18 ;
19 [label="x1 <= -0.358\ngini = 0.311\nsamples = 78\nvalue = [15, 63]\nclass = Blue", fillcolor="#68b4eb"] ;
18 -> 19 ;
20 [label="x2 <= 0.107\ngini = 0.49\nsamples = 14\nvalue = [6, 8]\nclass = Blue", fillcolor="#cee6f8"] ;
19 -> 20 ;
21 [label="gini = 0.408\nsamples = 7\nvalue = [5, 2]\nclass = Green", fillcolor="#efb388"] ;
20 -> 21 ;
22 [label="gini = 0.245\nsamples = 7\nvalue = [1, 6]\nclass = Blue", fillcolor="#5aade9"] ;
20 -> 22 ;
23 [label="x2 <= 0.249\ngini = 0.242\nsamples = 64\nvalue = [9, 55]\nclass = Blue", fillcolor="#59ade9"] ;
19 -> 23 ;
24 [label="x1 <= 0.102\ngini = 0.188\nsamples = 57\nvalue = [6, 51]\nclass = Blue", fillcolor="#50a9e8"] ;
23 -> 24 ;
25 [label="gini = 0.0\nsamples = 29\nvalue = [0, 29]\nclass = Blue", fillcolor="#399de5"] ;
24 -> 25 ;
26 [label="x1 <= 0.389\ngini = 0.337\nsamples = 28\nvalue = [6, 22]\nclass = Blue", fillcolor="#6fb8ec"] ;
24 -> 26 ;
27 [label="x2 <= -0.074\ngini = 0.408\nsamples = 21\nvalue = [6, 15]\nclass = Blue", fillcolor="#88c4ef"] ;
26 -> 27 ;
28 [label="gini = 0.32\nsamples = 10\nvalue = [2, 8]\nclass = Blue", fillcolor="#6ab6ec"] ;
27 -> 28 ;
29 [label="gini = 0.463\nsamples = 11\nvalue = [4, 7]\nclass = Blue", fillcolor="#aad5f4"] ;
27 -> 29 ;
30 [label="gini = 0.0\nsamples = 7\nvalue = [0, 7]\nclass = Blue", fillcolor="#399de5"] ;
26 -> 30 ;
31 [label="gini = 0.49\nsamples = 7\nvalue = [3, 4]\nclass = Blue", fillcolor="#cee6f8"] ;
23 -> 31 ;
32 [label="x2 <= 0.105\ngini = 0.478\nsamples = 91\nvalue = [36, 55]\nclass = Blue", fillcolor="#bbddf6"] ;
18 -> 32 ;
33 [label="x2 <= -0.208\ngini = 0.428\nsamples = 58\nvalue = [18, 40]\nclass = Blue", fillcolor="#92c9f1"] ;
32 -> 33 ;
34 [label="gini = 0.48\nsamples = 10\nvalue = [6, 4]\nclass = Green", fillcolor="#f6d5bd"] ;
33 -> 34 ;
35 [label="x1 <= 1.07\ngini = 0.375\nsamples = 48\nvalue = [12, 36]\nclass = Blue", fillcolor="#7bbeee"] ;
33 -> 35 ;
36 [label="x1 <= 0.68\ngini = 0.452\nsamples = 29\nvalue = [10, 19]\nclass = Blue", fillcolor="#a1d1f3"] ;
35 -> 36 ;
37 [label="gini = 0.165\nsamples = 11\nvalue = [1, 10]\nclass = Blue", fillcolor="#4da7e8"] ;
36 -> 37 ;
38 [label="x1 <= 0.827\ngini = 0.5\nsamples = 18\nvalue = [9, 9]\nclass = Green", fillcolor="#ffffff"] ;
36 -> 38 ;
39 [label="gini = 0.444\nsamples = 6\nvalue = [4, 2]\nclass = Green", fillcolor="#f2c09c"] ;
38 -> 39 ;
40 [label="x1 <= 0.967\ngini = 0.486\nsamples = 12\nvalue = [5, 7]\nclass = Blue", fillcolor="#c6e3f8"] ;
38 -> 40 ;
41 [label="gini = 0.444\nsamples = 6\nvalue = [2, 4]\nclass = Blue", fillcolor="#9ccef2"] ;
40 -> 41 ;
42 [label="gini = 0.5\nsamples = 6\nvalue = [3, 3]\nclass = Green", fillcolor="#ffffff"] ;
40 -> 42 ;
43 [label="x1 <= 1.223\ngini = 0.188\nsamples = 19\nvalue = [2, 17]\nclass = Blue", fillcolor="#50a9e8"] ;
35 -> 43 ;
44 [label="gini = 0.0\nsamples = 8\nvalue = [0, 8]\nclass = Blue", fillcolor="#399de5"] ;
43 -> 44 ;
45 [label="gini = 0.298\nsamples = 11\nvalue = [2, 9]\nclass = Blue", fillcolor="#65b3eb"] ;
43 -> 45 ;
46 [label="x1 <= 1.328\ngini = 0.496\nsamples = 33\nvalue = [18, 15]\nclass = Green", fillcolor="#fbeade"] ;
32 -> 46 ;
47 [label="x2 <= 0.251\ngini = 0.461\nsamples = 25\nvalue = [16, 9]\nclass = Green", fillcolor="#f4c8a8"] ;
46 -> 47 ;
48 [label="x2 <= 0.145\ngini = 0.494\nsamples = 18\nvalue = [10, 8]\nclass = Green", fillcolor="#fae6d7"] ;
47 -> 48 ;
49 [label="gini = 0.278\nsamples = 6\nvalue = [5, 1]\nclass = Green", fillcolor="#ea9a61"] ;
48 -> 49 ;
50 [label="x2 <= 0.23\ngini = 0.486\nsamples = 12\nvalue = [5, 7]\nclass = Blue", fillcolor="#c6e3f8"] ;
48 -> 50 ;
51 [label="gini = 0.278\nsamples = 6\nvalue = [1, 5]\nclass = Blue", fillcolor="#61b1ea"] ;
50 -> 51 ;
52 [label="gini = 0.444\nsamples = 6\nvalue = [4, 2]\nclass = Green", fillcolor="#f2c09c"] ;
50 -> 52 ;
53 [label="gini = 0.245\nsamples = 7\nvalue = [6, 1]\nclass = Green", fillcolor="#e9965a"] ;
47 -> 53 ;
54 [label="gini = 0.375\nsamples = 8\nvalue = [2, 6]\nclass = Blue", fillcolor="#7bbeee"] ;
46 -> 54 ;
55 [label="x2 <= 0.158\ngini = 0.034\nsamples = 58\nvalue = [1, 57]\nclass = Blue", fillcolor="#3c9fe5"] ;
17 -> 55 ;
56 [label="gini = 0.0\nsamples = 45\nvalue = [0, 45]\nclass = Blue", fillcolor="#399de5"] ;
55 -> 56 ;
57 [label="x1 <= 1.882\ngini = 0.142\nsamples = 13\nvalue = [1, 12]\nclass = Blue", fillcolor="#49a5e7"] ;
55 -> 57 ;
58 [label="gini = 0.278\nsamples = 6\nvalue = [1, 5]\nclass = Blue", fillcolor="#61b1ea"] ;
57 -> 58 ;
59 [label="gini = 0.0\nsamples = 7\nvalue = [0, 7]\nclass = Blue", fillcolor="#399de5"] ;
57 -> 59 ;
60 [label="x1 <= 1.591\ngini = 0.336\nsamples = 393\nvalue = [309, 84]\nclass = Green", fillcolor="#eca36f"] ;
0 -> 60 [labeldistance=2.5, labelangle=-45, headlabel="False"] ;
61 [label="x2 <= 0.614\ngini = 0.245\nsamples = 357\nvalue = [306, 51]\nclass = Green", fillcolor="#e9965a"] ;
60 -> 61 ;
62 [label="x1 <= -0.594\ngini = 0.419\nsamples = 117\nvalue = [82, 35]\nclass = Green", fillcolor="#f0b78e"] ;
61 -> 62 ;
63 [label="gini = 0.0\nsamples = 24\nvalue = [24, 0]\nclass = Green", fillcolor="#e58139"] ;
62 -> 63 ;
64 [label="x1 <= 0.488\ngini = 0.469\nsamples = 93\nvalue = [58, 35]\nclass = Green", fillcolor="#f5cdb0"] ;
62 -> 64 ;
65 [label="x2 <= 0.434\ngini = 0.5\nsamples = 57\nvalue = [29, 28]\nclass = Green", fillcolor="#fefbf8"] ;
64 -> 65 ;
66 [label="x1 <= 0.109\ngini = 0.454\nsamples = 23\nvalue = [8, 15]\nclass = Blue", fillcolor="#a3d1f3"] ;
65 -> 66 ;
67 [label="gini = 0.5\nsamples = 6\nvalue = [3, 3]\nclass = Green", fillcolor="#ffffff"] ;
66 -> 67 ;
68 [label="x1 <= 0.38\ngini = 0.415\nsamples = 17\nvalue = [5, 12]\nclass = Blue", fillcolor="#8bc6f0"] ;
66 -> 68 ;
69 [label="gini = 0.298\nsamples = 11\nvalue = [2, 9]\nclass = Blue", fillcolor="#65b3eb"] ;
68 -> 69 ;
70 [label="gini = 0.5\nsamples = 6\nvalue = [3, 3]\nclass = Green", fillcolor="#ffffff"] ;
68 -> 70 ;
71 [label="x2 <= 0.471\ngini = 0.472\nsamples = 34\nvalue = [21, 13]\nclass = Green", fillcolor="#f5cfb4"] ;
65 -> 71 ;
72 [label="gini = 0.278\nsamples = 6\nvalue = [5, 1]\nclass = Green", fillcolor="#ea9a61"] ;
71 -> 72 ;
73 [label="x1 <= -0.095\ngini = 0.49\nsamples = 28\nvalue = [16, 12]\nclass = Green", fillcolor="#f8e0ce"] ;
71 -> 73 ;
74 [label="gini = 0.397\nsamples = 11\nvalue = [8, 3]\nclass = Green", fillcolor="#efb083"] ;
73 -> 74 ;
75 [label="x1 <= 0.098\ngini = 0.498\nsamples = 17\nvalue = [8, 9]\nclass = Blue", fillcolor="#e9f4fc"] ;
73 -> 75 ;
76 [label="gini = 0.444\nsamples = 6\nvalue = [2, 4]\nclass = Blue", fillcolor="#9ccef2"] ;
75 -> 76 ;
77 [label="gini = 0.496\nsamples = 11\nvalue = [6, 5]\nclass = Green", fillcolor="#fbeade"] ;
75 -> 77 ;
78 [label="x2 <= 0.356\ngini = 0.313\nsamples = 36\nvalue = [29, 7]\nclass = Green", fillcolor="#eb9f69"] ;
64 -> 78 ;
79 [label="gini = 0.42\nsamples = 10\nvalue = [7, 3]\nclass = Green", fillcolor="#f0b78e"] ;
78 -> 79 ;
80 [label="x2 <= 0.434\ngini = 0.26\nsamples = 26\nvalue = [22, 4]\nclass = Green", fillcolor="#ea985d"] ;
78 -> 80 ;
81 [label="gini = 0.0\nsamples = 8\nvalue = [8, 0]\nclass = Green", fillcolor="#e58139"] ;
80 -> 81 ;
82 [label="x2 <= 0.496\ngini = 0.346\nsamples = 18\nvalue = [14, 4]\nclass = Green", fillcolor="#eca572"] ;
80 -> 82 ;
83 [label="gini = 0.444\nsamples = 9\nvalue = [6, 3]\nclass = Green", fillcolor="#f2c09c"] ;
82 -> 83 ;
84 [label="gini = 0.198\nsamples = 9\nvalue = [8, 1]\nclass = Green", fillcolor="#e89152"] ;
82 -> 84 ;
85 [label="x2 <= 0.826\ngini = 0.124\nsamples = 240\nvalue = [224, 16]\nclass = Green", fillcolor="#e78a47"] ;
61 -> 85 ;
86 [label="x1 <= -0.37\ngini = 0.242\nsamples = 71\nvalue = [61, 10]\nclass = Green", fillcolor="#e99659"] ;
85 -> 86 ;
87 [label="gini = 0.0\nsamples = 16\nvalue = [16, 0]\nclass = Green", fillcolor="#e58139"] ;
86 -> 87 ;
88 [label="x1 <= 0.427\ngini = 0.298\nsamples = 55\nvalue = [45, 10]\nclass = Green", fillcolor="#eb9d65"] ;
86 -> 88 ;
89 [label="x1 <= 0.166\ngini = 0.455\nsamples = 20\nvalue = [13, 7]\nclass = Green", fillcolor="#f3c5a4"] ;
88 -> 89 ;
90 [label="x1 <= 0.02\ngini = 0.337\nsamples = 14\nvalue = [11, 3]\nclass = Green", fillcolor="#eca36f"] ;
89 -> 90 ;
91 [label="gini = 0.5\nsamples = 6\nvalue = [3, 3]\nclass = Green", fillcolor="#ffffff"] ;
90 -> 91 ;
92 [label="gini = 0.0\nsamples = 8\nvalue = [8, 0]\nclass = Green", fillcolor="#e58139"] ;
90 -> 92 ;
93 [label="gini = 0.444\nsamples = 6\nvalue = [2, 4]\nclass = Blue", fillcolor="#9ccef2"] ;
89 -> 93 ;
94 [label="x1 <= 0.695\ngini = 0.157\nsamples = 35\nvalue = [32, 3]\nclass = Green", fillcolor="#e78d4c"] ;
88 -> 94 ;
95 [label="gini = 0.0\nsamples = 9\nvalue = [9, 0]\nclass = Green", fillcolor="#e58139"] ;
94 -> 95 ;
96 [label="x1 <= 0.874\ngini = 0.204\nsamples = 26\nvalue = [23, 3]\nclass = Green", fillcolor="#e89153"] ;
94 -> 96 ;
97 [label="gini = 0.375\nsamples = 8\nvalue = [6, 2]\nclass = Green", fillcolor="#eeab7b"] ;
96 -> 97 ;
98 [label="x1 <= 1.272\ngini = 0.105\nsamples = 18\nvalue = [17, 1]\nclass = Green", fillcolor="#e78845"] ;
96 -> 98 ;
99 [label="gini = 0.0\nsamples = 12\nvalue = [12, 0]\nclass = Green", fillcolor="#e58139"] ;
98 -> 99 ;
100 [label="gini = 0.278\nsamples = 6\nvalue = [5, 1]\nclass = Green", fillcolor="#ea9a61"] ;
98 -> 100 ;
101 [label="x1 <= -0.273\ngini = 0.068\nsamples = 169\nvalue = [163, 6]\nclass = Green", fillcolor="#e68640"] ;
85 -> 101 ;
102 [label="gini = 0.0\nsamples = 65\nvalue = [65, 0]\nclass = Green", fillcolor="#e58139"] ;
101 -> 102 ;
103 [label="x1 <= -0.219\ngini = 0.109\nsamples = 104\nvalue = [98, 6]\nclass = Green", fillcolor="#e78945"] ;
101 -> 103 ;
104 [label="gini = 0.444\nsamples = 6\nvalue = [4, 2]\nclass = Green", fillcolor="#f2c09c"] ;
103 -> 104 ;
105 [label="x2 <= 1.586\ngini = 0.078\nsamples = 98\nvalue = [94, 4]\nclass = Green", fillcolor="#e68641"] ;
103 -> 105 ;
106 [label="x1 <= 1.142\ngini = 0.063\nsamples = 92\nvalue = [89, 3]\nclass = Green", fillcolor="#e68540"] ;
105 -> 106 ;
107 [label="x2 <= 1.084\ngini = 0.045\nsamples = 86\nvalue = [84, 2]\nclass = Green", fillcolor="#e6843e"] ;
106 -> 107 ;
108 [label="gini = 0.0\nsamples = 37\nvalue = [37, 0]\nclass = Green", fillcolor="#e58139"] ;
107 -> 108 ;
109 [label="x2 <= 1.234\ngini = 0.078\nsamples = 49\nvalue = [47, 2]\nclass = Green", fillcolor="#e68641"] ;
107 -> 109 ;
110 [label="x1 <= 0.034\ngini = 0.172\nsamples = 21\nvalue = [19, 2]\nclass = Green", fillcolor="#e88e4e"] ;
109 -> 110 ;
111 [label="gini = 0.0\nsamples = 8\nvalue = [8, 0]\nclass = Green", fillcolor="#e58139"] ;
110 -> 111 ;
112 [label="x1 <= 0.334\ngini = 0.26\nsamples = 13\nvalue = [11, 2]\nclass = Green", fillcolor="#ea985d"] ;
110 -> 112 ;
113 [label="gini = 0.278\nsamples = 6\nvalue = [5, 1]\nclass = Green", fillcolor="#ea9a61"] ;
112 -> 113 ;
114 [label="gini = 0.245\nsamples = 7\nvalue = [6, 1]\nclass = Green", fillcolor="#e9965a"] ;
112 -> 114 ;
115 [label="gini = 0.0\nsamples = 28\nvalue = [28, 0]\nclass = Green", fillcolor="#e58139"] ;
109 -> 115 ;
116 [label="gini = 0.278\nsamples = 6\nvalue = [5, 1]\nclass = Green", fillcolor="#ea9a61"] ;
106 -> 116 ;
117 [label="gini = 0.278\nsamples = 6\nvalue = [5, 1]\nclass = Green", fillcolor="#ea9a61"] ;
105 -> 117 ;
118 [label="x1 <= 2.011\ngini = 0.153\nsamples = 36\nvalue = [3, 33]\nclass = Blue", fillcolor="#4ba6e7"] ;
60 -> 118 ;
119 [label="x2 <= 0.611\ngini = 0.236\nsamples = 22\nvalue = [3, 19]\nclass = Blue", fillcolor="#58ace9"] ;
118 -> 119 ;
120 [label="x2 <= 0.472\ngini = 0.153\nsamples = 12\nvalue = [1, 11]\nclass = Blue", fillcolor="#4ba6e7"] ;
119 -> 120 ;
121 [label="gini = 0.278\nsamples = 6\nvalue = [1, 5]\nclass = Blue", fillcolor="#61b1ea"] ;
120 -> 121 ;
122 [label="gini = 0.0\nsamples = 6\nvalue = [0, 6]\nclass = Blue", fillcolor="#399de5"] ;
120 -> 122 ;
123 [label="gini = 0.32\nsamples = 10\nvalue = [2, 8]\nclass = Blue", fillcolor="#6ab6ec"] ;
119 -> 123 ;
124 [label="gini = 0.0\nsamples = 14\nvalue = [0, 14]\nclass = Blue", fillcolor="#399de5"] ;
118 -> 124 ;
}